SVM-light Version V6.20
0 # kernel type
3 # kernel parameter -d 
1 # kernel parameter -g 
1 # kernel parameter -s 
1 # kernel parameter -r 
empty# kernel parameter -u 
500 # highest feature index 
122 # number of training documents 
2 # number of support vectors plus 1 
0 # threshold b, each following line is a SV (starting with alpha*y)
1 1:0.98181397 2:-0.63634914 3:-0.63635075 5:-1.3552997 6:2.9504642 7:0.42371663 9:0.86650509 10:0.099335648 11:-2.3945153 12:0.38678658 13:4.2251067 14:0.33421931 15:-0.84250605 16:-2.6488602 17:-2.0656717 18:-1.9254421 20:-2.9739842 22:3.2379904 23:-2.8192298 24:0.18522647 27:-1.0989249 28:-1.7037398 29:-1.87765 30:-0.7186389 31:0.85590887 32:0.56548691 33:1.1525837 34:0.096061774 35:0.85611409 36:-0.0011024466 37:0.66382319 38:-0.29818186 39:3.372997 40:0.83387262 41:1.5937322 42:0.66269898 43:1.096338 44:1.1022214 45:0.094244204 46:0.40257588 47:1.4742112 48:2.1063802 49:1.7733184 50:-2.5008991 51:1.333685 52:1.7150255 53:-2.021137 54:0.77540261 55:-2.0156457 56:1.5229533 57:-1.0585226 58:-1.5699631 59:0.77359062 60:-0.23918545 61:-0.20928122 62:1.7056954 63:0.0078823436 64:-1.3971291 65:2.3511603 67:-1.7696306 68:0.041189738 69:1.2895406 70:-6.6290956 71:-1.3256552 72:0.51392347 73:-2.4782791 74:0.8754676 75:-0.94169319 76:0.041956719 77:0.56859845 78:0.57057577 79:-0.38976333 80:-2.2755923 81:0.77489716 82:2.0812285 83:-1.500363 84:1.7913754 85:-0.35311714 86:-3.0247457 87:-0.013925829 88:-1.4874423 89:-0.16259381 90:-0.097445644 91:-1.2921813 92:-0.49632195 94:1.4911587 95:-1.0514327 96:1.9289758 99:0.063199617 100:-1.2869046 101:0.14206113 102:0.22822149 103:-1.0196109 104:0.91418767 105:2.3450587 106:-0.46402368 107:-0.16524647 108:-1.3891603 109:-3.9103615 110:-1.3187412 112:-0.52825779 114:-0.73946649 115:-2.3565881 116:1.0282632 117:3.35443 118:-1.0627905 119:-3.9281096 121:-0.14438951 122:0.99434519 124:-0.041498173 125:0.63657635 126:1.3667864 127:3.1159716 128:-0.21275543 129:0.094873838 130:3.7199323 131:-2.1694393 132:2.0286009 133:-0.35706794 134:-1.6957375 135:1.4791572 136:-0.80727506 137:1.1042163 139:-0.16326387 140:0.22685556 141:-0.8536666 142:-0.68140936 143:3.2143719 144:2.0888946 145:0.99646938 146:1.3554821 147:-0.26541749 149:-0.18069306 150:4.7092319 151:2.0178452 152:0.32774559 153:0.35936818 154:0.6415782 155:2.6763268 156:1.2450885 157:2.314168 158:-0.021869678 159:-2.4657831 160:-0.14021286 161:3.1109426 162:-2.6564338 163:2.5312235 164:-1.479743 166:2.3161128 169:0.42109671 170:-2.2506495 171:-0.092538014 172:0.83139646 174:4.0536485 175:0.37829149 176:-0.36821035 177:0.22822149 178:-1.4874423 179:1.1593136 185:0.80883074 186:1.7582002 187:-1.1926342 188:-0.79888177 189:-1.4570078 190:1.288852 191:1.8034062 194:-0.84996998 195:-1.0752271 196:1.6876912 197:-1.8215462 199:-0.24857152 200:-2.2179513 201:6.0782299 202:0.025874354 204:-0.38254476 205:1.156412 206:-1.0572555 207:-1.5854949 209:-1.9772605 212:0.64218867 213:-0.33440992 214:-0.51867068 215:-1.4321926 217:0.22822149 218:-1.4874423 219:-2.1066833 220:-0.16068688 221:1.3040335 222:1.013801 224:-0.29562783 225:0.28190205 226:-0.053853545 227:-0.40088779 228:-1.3891603 229:-0.030094059 230:0.58298415 231:-2.6147437 232:-1.2482979 233:0.066710673 234:-0.82819325 235:-0.13998885 236:-1.3386816 237:-0.10618844 239:-0.52234244 240:0.54816014 241:0.06101653 242:-1.2266765 243:-0.31996128 244:-0.67230946 245:0.22822149 246:-1.4140515 247:0.036562238 249:0.41396719 250:-0.31996128 251:-0.37740496 252:-1.4673264 253:-2.4567008 254:2.4025204 255:-0.38123599 256:-2.1834016 257:1.921088 258:-1.8955045 259:0.96688527 260:-1.6047565 261:2.9140291 262:0.40623102 263:2.9926491 264:-1.7661288 265:0.050575212 266:-1.5701407 267:-0.69305068 268:-0.31243449 269:2.3928154 270:1.666852 271:-3.3894556 272:1.4390208 274:-0.93055183 276:1.36572 277:-0.9063707 278:-1.8899447 279:2.4837592 280:1.3783157 281:1.398479 282:1.1319625 283:3.1568897 284:-0.39119408 285:-0.82688934 286:-0.38270414 288:-0.44383231 289:1.9612007 290:1.4532187 291:1.2057374 292:4.2699909 293:4.6571984 294:3.7732997 295:-2.0935745 296:3.5050826 297:4.2121964 299:2.6581967 300:1.2772589 301:1.5025549 302:3.9008956 303:3.0442655 304:1.4045385 305:1.0285723 306:-1.2537328 307:1.6162443 308:-0.64483643 309:5.9590831 310:1.717297 311:4.989295 312:1.8835685 313:4.772881 315:2.0495293 316:-4.4788446 317:-2.8901 318:-0.094579577 319:-0.13301204 320:-0.65985751 321:-1.4659307 322:1.450978 323:0.20820133 324:-0.34424862 325:-2.2242577 326:-1.370394 327:0.65413481 328:-0.073737577 329:-0.59480375 330:1.3810823 331:0.70212549 332:0.78552502 333:0.51918054 334:-1.2553111 335:2.8989584 336:1.3043861 337:0.57733756 338:0.13606375 339:1.3700035 340:-0.2194147 341:1.6862385 342:1.8817459 343:-0.87216151 344:0.93734491 345:1.0853535 346:0.34565398 347:2.5652876 348:-4.6264434 349:-2.5345223 350:0.31728476 351:1.0202109 352:1.5564798 353:-1.9148204 354:-2.1872435 355:1.7279297 356:0.62125719 357:-0.57848364 358:0.91051841 359:-0.45183596 360:0.81788784 361:1.391427 362:-2.9721384 363:1.0963918 364:-0.74302071 365:2.9694295 366:-0.13804592 367:-3.3595142 368:-0.73059773 369:-2.6464241 370:2.6260307 371:-1.2165669 372:1.2364092 373:-4.9302444 374:0.43037167 375:0.39192265 376:-0.23497286 377:0.082622014 378:-0.68413877 379:1.9518236 380:-0.124924 381:0.69944352 382:-2.0467665 383:4.5951753 384:2.8870878 385:-2.0080688 386:0.75808877 387:-1.8960021 388:-0.56218237 389:1.1388171 390:-0.60059863 391:2.1264229 392:0.25463235 393:1.1913832 394:0.095289722 395:-0.053916305 396:-3.6294458 397:3.5344183 398:-0.72847694 399:-1.2614851 400:1.9941561 401:-0.55454594 402:0.73422825 403:-0.78495586 404:1.1166451 405:-0.26867047 406:0.19386408 407:-1.4786502 408:0.77637607 409:-2.0467665 410:-0.053916305 411:4.8411298 412:3.4688866 413:-3.5380778 414:0.78940403 415:-0.52747285 416:-1.7792811 417:-0.96297193 418:-0.52747285 419:-0.0088518988 420:-0.52747285 421:-0.017600235 422:0.85055882 423:-0.98604393 424:-0.75726944 425:0.41394648 426:0.4964729 427:0.37042043 428:0.70045924 429:0.19454196 430:-0.39237979 431:-1.0910704 432:1.2356704 433:-1.2695636 434:0.66900355 435:0.26852471 436:-2.8144588 437:1.4117347 438:-0.88699776 439:0.17029281 440:1.8185135 441:1.0679684 442:1.2335105 443:0.7261073 444:-0.3076576 445:-0.76245046 446:1.4951364 447:-0.32123148 448:0.56550384 449:-0.20528176 450:-2.2204807 451:-3.2975044 452:-0.19607233 453:0.7201792 454:-1.1809263 455:0.88756001 456:0.60000288 457:1.7982918 458:-2.8871393 459:-2.1195126 460:2.1604815 461:-1.1690307 462:0.28701255 463:-1.5567026 464:1.1319391 465:0.55993384 466:0.94289654 467:0.89595217 468:-1.0142336 469:-0.74302071 470:-1.4320494 471:-3.0974553 472:-0.124924 473:0.69944352 474:-2.0467665 475:-2.0467665 476:-0.094579577 477:-1.4659307 478:1.450978 479:0.20820133 480:-0.13301204 481:-0.65791142 482:-0.34424862 483:-2.1969733 484:-1.370394 485:0.65413481 486:-0.073737577 487:-0.59480375 488:1.3810823 489:0.70212549 490:4.2121964 491:4.772881 492:3.9014149 493:1.0308491 494:1.4666617 495:1.2772589 497:-1.8351934 498:1.8549161 499:-0.37569901 #
